digraph Tree {
node [shape=box, style="filled, rounded", color="black", fontname=helvetica] ;
edge [fontname=helvetica] ;
0 [label=<X<SUB>16</SUB> &le; -2.704<br/>gini = 0.003<br/>samples = 199364<br/>value = [199019, 345]>, fillcolor="#e58139"] ;
1 [label=<X<SUB>9</SUB> &le; -1.458<br/>gini = 0.364<br/>samples = 318<br/>value = [76, 242]>, fillcolor="#77bced"] ;
0 -> 1 [labeldistance=2.5, labelangle=45, headlabel="True"] ;
2 [label=<X<SUB>25</SUB> &le; -0.228<br/>gini = 0.278<br/>samples = 282<br/>value = [47, 235]>, fillcolor="#61b1ea"] ;
1 -> 2 ;
3 [label=<X<SUB>26</SUB> &le; 0.915<br/>gini = 0.476<br/>samples = 95<br/>value = [37, 58]>, fillcolor="#b7dcf6"] ;
2 -> 3 ;
4 [label=<X<SUB>13</SUB> &le; -2.822<br/>gini = 0.299<br/>samples = 60<br/>value = [11, 49]>, fillcolor="#65b3eb"] ;
3 -> 4 ;
5 [label=<X<SUB>12</SUB> &le; 1.621<br/>gini = 0.077<br/>samples = 50<br/>value = [2, 48]>, fillcolor="#41a1e6"] ;
4 -> 5 ;
6 [label=<X<SUB>27</SUB> &le; 0.791<br/>gini = 0.042<br/>samples = 47<br/>value = [1, 46]>, fillcolor="#3d9fe6"] ;
5 -> 6 ;
7 [label=<gini = 0.0<br/>samples = 42<br/>value = [0, 42]>, fillcolor="#399de5"] ;
6 -> 7 ;
8 [label=<X<SUB>19</SUB> &le; 0.175<br/>gini = 0.32<br/>samples = 5<br/>value = [1, 4]>, fillcolor="#6ab6ec"] ;
6 -> 8 ;
9 [label=<gini = 0.0<br/>samples = 4<br/>value = [0, 4]>, fillcolor="#399de5"] ;
8 -> 9 ;
10 [label=<gini = 0.0<br/>samples = 1<br/>value = [1, 0]>, fillcolor="#e58139"] ;
8 -> 10 ;
11 [label=<X<SUB>28</SUB> &le; 0.342<br/>gini = 0.444<br/>samples = 3<br/>value = [1, 2]>, fillcolor="#9ccef2"] ;
5 -> 11 ;
12 [label=<gini = 0.0<br/>samples = 1<br/>value = [1, 0]>, fillcolor="#e58139"] ;
11 -> 12 ;
13 [label=<gini = 0.0<br/>samples = 2<br/>value = [0, 2]>, fillcolor="#399de5"] ;
11 -> 13 ;
14 [label=<X<SUB>18</SUB> &le; -0.923<br/>gini = 0.18<br/>samples = 10<br/>value = [9, 1]>, fillcolor="#e88f4f"] ;
4 -> 14 ;
15 [label=<gini = 0.0<br/>samples = 1<br/>value = [0, 1]>, fillcolor="#399de5"] ;
14 -> 15 ;
16 [label=<gini = 0.0<br/>samples = 9<br/>value = [9, 0]>, fillcolor="#e58139"] ;
14 -> 16 ;
17 [label=<X<SUB>28</SUB> &le; 0.027<br/>gini = 0.382<br/>samples = 35<br/>value = [26, 9]>, fillcolor="#eead7e"] ;
3 -> 17 ;
18 [label=<X<SUB>26</SUB> &le; 2.224<br/>gini = 0.074<br/>samples = 26<br/>value = [25, 1]>, fillcolor="#e68641"] ;
17 -> 18 ;
19 [label=<gini = 0.0<br/>samples = 25<br/>value = [25, 0]>, fillcolor="#e58139"] ;
18 -> 19 ;
20 [label=<gini = 0.0<br/>samples = 1<br/>value = [0, 1]>, fillcolor="#399de5"] ;
18 -> 20 ;
21 [label=<X<SUB>13</SUB> &le; -3.609<br/>gini = 0.198<br/>samples = 9<br/>value = [1, 8]>, fillcolor="#52a9e8"] ;
17 -> 21 ;
22 [label=<gini = 0.0<br/>samples = 8<br/>value = [0, 8]>, fillcolor="#399de5"] ;
21 -> 22 ;
23 [label=<gini = 0.0<br/>samples = 1<br/>value = [1, 0]>, fillcolor="#e58139"] ;
21 -> 23 ;
24 [label=<X<SUB>2</SUB> &le; -31.779<br/>gini = 0.101<br/>samples = 187<br/>value = [10, 177]>, fillcolor="#44a3e6"] ;
2 -> 24 ;
25 [label=<gini = 0.0<br/>samples = 2<br/>value = [2, 0]>, fillcolor="#e58139"] ;
24 -> 25 ;
26 [label=<X<SUB>3</SUB> &le; 1.724<br/>gini = 0.083<br/>samples = 185<br/>value = [8, 177]>, fillcolor="#42a1e6"] ;
24 -> 26 ;
27 [label=<X<SUB>26</SUB> &le; 0.506<br/>gini = 0.423<br/>samples = 23<br/>value = [7, 16]>, fillcolor="#90c8f0"] ;
26 -> 27 ;
28 [label=<X<SUB>13</SUB> &le; -3.126<br/>gini = 0.198<br/>samples = 18<br/>value = [2, 16]>, fillcolor="#52a9e8"] ;
27 -> 28 ;
29 [label=<gini = 0.0<br/>samples = 16<br/>value = [0, 16]>, fillcolor="#399de5"] ;
28 -> 29 ;
30 [label=<gini = 0.0<br/>samples = 2<br/>value = [2, 0]>, fillcolor="#e58139"] ;
28 -> 30 ;
31 [label=<gini = 0.0<br/>samples = 5<br/>value = [5, 0]>, fillcolor="#e58139"] ;
27 -> 31 ;
32 [label=<X<SUB>27</SUB> &le; 1.032<br/>gini = 0.012<br/>samples = 162<br/>value = [1, 161]>, fillcolor="#3a9ee5"] ;
26 -> 32 ;
33 [label=<gini = 0.0<br/>samples = 158<br/>value = [0, 158]>, fillcolor="#399de5"] ;
32 -> 33 ;
34 [label=<X<SUB>20</SUB> &le; 1.394<br/>gini = 0.375<br/>samples = 4<br/>value = [1, 3]>, fillcolor="#7bbeee"] ;
32 -> 34 ;
35 [label=<gini = 0.0<br/>samples = 1<br/>value = [1, 0]>, fillcolor="#e58139"] ;
34 -> 35 ;
36 [label=<gini = 0.0<br/>samples = 3<br/>value = [0, 3]>, fillcolor="#399de5"] ;
34 -> 36 ;
37 [label=<X<SUB>20</SUB> &le; 0.304<br/>gini = 0.313<br/>samples = 36<br/>value = [29, 7]>, fillcolor="#eb9f69"] ;
1 -> 37 ;
38 [label=<X<SUB>6</SUB> &le; -4.675<br/>gini = 0.074<br/>samples = 26<br/>value = [25, 1]>, fillcolor="#e68641"] ;
37 -> 38 ;
39 [label=<gini = 0.0<br/>samples = 1<br/>value = [0, 1]>, fillcolor="#399de5"] ;
38 -> 39 ;
40 [label=<gini = 0.0<br/>samples = 25<br/>value = [25, 0]>, fillcolor="#e58139"] ;
38 -> 40 ;
41 [label=<X<SUB>13</SUB> &le; -2.985<br/>gini = 0.48<br/>samples = 10<br/>value = [4, 6]>, fillcolor="#bddef6"] ;
37 -> 41 ;
42 [label=<gini = 0.0<br/>samples = 5<br/>value = [0, 5]>, fillcolor="#399de5"] ;
41 -> 42 ;
43 [label=<X<SUB>8</SUB> &le; -2.434<br/>gini = 0.32<br/>samples = 5<br/>value = [4, 1]>, fillcolor="#eca06a"] ;
41 -> 43 ;
44 [label=<gini = 0.0<br/>samples = 1<br/>value = [0, 1]>, fillcolor="#399de5"] ;
43 -> 44 ;
45 [label=<gini = 0.0<br/>samples = 4<br/>value = [4, 0]>, fillcolor="#e58139"] ;
43 -> 45 ;
46 [label=<X<SUB>13</SUB> &le; -8.098<br/>gini = 0.001<br/>samples = 199046<br/>value = [198943, 103]>, fillcolor="#e58139"] ;
0 -> 46 [labeldistance=2.5, labelangle=-45, headlabel="False"] ;
47 [label=<X<SUB>2</SUB> &le; -3.156<br/>gini = 0.211<br/>samples = 25<br/>value = [3, 22]>, fillcolor="#54aae9"] ;
46 -> 47 ;
48 [label=<gini = 0.0<br/>samples = 22<br/>value = [0, 22]>, fillcolor="#399de5"] ;
47 -> 48 ;
49 [label=<gini = 0.0<br/>samples = 3<br/>value = [3, 0]>, fillcolor="#e58139"] ;
47 -> 49 ;
50 [label=<X<SUB>13</SUB> &le; -4.661<br/>gini = 0.001<br/>samples = 199021<br/>value = [198940, 81]>, fillcolor="#e58139"] ;
46 -> 50 ;
51 [label=<X<SUB>9</SUB> &le; -1.847<br/>gini = 0.243<br/>samples = 177<br/>value = [152, 25]>, fillcolor="#e9965a"] ;
50 -> 51 ;
52 [label=<X<SUB>23</SUB> &le; -1.164<br/>gini = 0.467<br/>samples = 35<br/>value = [13, 22]>, fillcolor="#aed7f4"] ;
51 -> 52 ;
53 [label=<gini = 0.0<br/>samples = 9<br/>value = [9, 0]>, fillcolor="#e58139"] ;
52 -> 53 ;
54 [label=<X<SUB>17</SUB> &le; 3.318<br/>gini = 0.26<br/>samples = 26<br/>value = [4, 22]>, fillcolor="#5dafea"] ;
52 -> 54 ;
55 [label=<X<SUB>3</SUB> &le; 0.91<br/>gini = 0.083<br/>samples = 23<br/>value = [1, 22]>, fillcolor="#42a1e6"] ;
54 -> 55 ;
56 [label=<gini = 0.0<br/>samples = 1<br/>value = [1, 0]>, fillcolor="#e58139"] ;
55 -> 56 ;
57 [label=<gini = 0.0<br/>samples = 22<br/>value = [0, 22]>, fillcolor="#399de5"] ;
55 -> 57 ;
58 [label=<gini = 0.0<br/>samples = 3<br/>value = [3, 0]>, fillcolor="#e58139"] ;
54 -> 58 ;
59 [label=<X<SUB>14</SUB> &le; -1.311<br/>gini = 0.041<br/>samples = 142<br/>value = [139, 3]>, fillcolor="#e6843d"] ;
51 -> 59 ;
60 [label=<gini = 0.0<br/>samples = 1<br/>value = [0, 1]>, fillcolor="#399de5"] ;
59 -> 60 ;
61 [label=<X<SUB>24</SUB> &le; -1.216<br/>gini = 0.028<br/>samples = 141<br/>value = [139, 2]>, fillcolor="#e5833c"] ;
59 -> 61 ;
62 [label=<gini = 0.0<br/>samples = 1<br/>value = [0, 1]>, fillcolor="#399de5"] ;
61 -> 62 ;
63 [label=<X<SUB>10</SUB> &le; 0.237<br/>gini = 0.014<br/>samples = 140<br/>value = [139, 1]>, fillcolor="#e5823a"] ;
61 -> 63 ;
64 [label=<X<SUB>20</SUB> &le; -0.097<br/>gini = 0.444<br/>samples = 3<br/>value = [2, 1]>, fillcolor="#f2c09c"] ;
63 -> 64 ;
65 [label=<gini = 0.0<br/>samples = 2<br/>value = [2, 0]>, fillcolor="#e58139"] ;
64 -> 65 ;
66 [label=<gini = 0.0<br/>samples = 1<br/>value = [0, 1]>, fillcolor="#399de5"] ;
64 -> 66 ;
67 [label=<gini = 0.0<br/>samples = 137<br/>value = [137, 0]>, fillcolor="#e58139"] ;
63 -> 67 ;
68 [label=<X<SUB>11</SUB> &le; -4.98<br/>gini = 0.001<br/>samples = 198844<br/>value = [198788, 56]>, fillcolor="#e58139"] ;
50 -> 68 ;
69 [label=<X<SUB>12</SUB> &le; 0.51<br/>gini = 0.444<br/>samples = 3<br/>value = [1, 2]>, fillcolor="#9ccef2"] ;
68 -> 69 ;
70 [label=<gini = 0.0<br/>samples = 1<br/>value = [1, 0]>, fillcolor="#e58139"] ;
69 -> 70 ;
71 [label=<gini = 0.0<br/>samples = 2<br/>value = [0, 2]>, fillcolor="#399de5"] ;
69 -> 71 ;
72 [label=<X<SUB>22</SUB> &le; -15.563<br/>gini = 0.001<br/>samples = 198841<br/>value = [198787, 54]>, fillcolor="#e58139"] ;
68 -> 72 ;
73 [label=<X<SUB>14</SUB> &le; -0.664<br/>gini = 0.091<br/>samples = 21<br/>value = [20, 1]>, fillcolor="#e68743"] ;
72 -> 73 ;
74 [label=<gini = 0.0<br/>samples = 1<br/>value = [0, 1]>, fillcolor="#399de5"] ;
73 -> 74 ;
75 [label=<gini = 0.0<br/>samples = 20<br/>value = [20, 0]>, fillcolor="#e58139"] ;
73 -> 75 ;
76 [label=<X<SUB>13</SUB> &le; -1.816<br/>gini = 0.001<br/>samples = 198820<br/>value = [198767, 53]>, fillcolor="#e58139"] ;
72 -> 76 ;
77 [label=<X<SUB>13</SUB> &le; -1.816<br/>gini = 0.006<br/>samples = 5589<br/>value = [5572, 17]>, fillcolor="#e5813a"] ;
76 -> 77 ;
78 [label=<X<SUB>20</SUB> &le; 8.916<br/>gini = 0.006<br/>samples = 5588<br/>value = [5572, 16]>, fillcolor="#e5813a"] ;
77 -> 78 ;
79 [label=<X<SUB>3</SUB> &le; 1.97<br/>gini = 0.005<br/>samples = 5585<br/>value = [5570, 15]>, fillcolor="#e5813a"] ;
78 -> 79 ;
80 [label=<X<SUB>28</SUB> &le; 0.743<br/>gini = 0.002<br/>samples = 5118<br/>value = [5112, 6]>, fillcolor="#e58139"] ;
79 -> 80 ;
81 [label=<X<SUB>13</SUB> &le; -1.825<br/>gini = 0.001<br/>samples = 4925<br/>value = [4922, 3]>, fillcolor="#e58139"] ;
80 -> 81 ;
82 [label=<X<SUB>11</SUB> &le; 0.729<br/>gini = 0.001<br/>samples = 4879<br/>value = [4877, 2]>, fillcolor="#e58139"] ;
81 -> 82 ;
83 [label=<gini = 0.0<br/>samples = 4541<br/>value = [4541, 0]>, fillcolor="#e58139"] ;
82 -> 83 ;
84 [label=<X<SUB>11</SUB> &le; 0.729<br/>gini = 0.012<br/>samples = 338<br/>value = [336, 2]>, fillcolor="#e5823a"] ;
82 -> 84 ;
85 [label=<gini = 0.0<br/>samples = 1<br/>value = [0, 1]>, fillcolor="#399de5"] ;
84 -> 85 ;
86 [label=<X<SUB>12</SUB> &le; 1.363<br/>gini = 0.006<br/>samples = 337<br/>value = [336, 1]>, fillcolor="#e5813a"] ;
84 -> 86 ;
87 [label=<gini = 0.0<br/>samples = 315<br/>value = [315, 0]>, fillcolor="#e58139"] ;
86 -> 87 ;
88 [label=<X<SUB>6</SUB> &le; 0.283<br/>gini = 0.087<br/>samples = 22<br/>value = [21, 1]>, fillcolor="#e68742"] ;
86 -> 88 ;
89 [label=<gini = 0.0<br/>samples = 21<br/>value = [21, 0]>, fillcolor="#e58139"] ;
88 -> 89 ;
90 [label=<gini = 0.0<br/>samples = 1<br/>value = [0, 1]>, fillcolor="#399de5"] ;
88 -> 90 ;
91 [label=<X<SUB>13</SUB> &le; -1.825<br/>gini = 0.043<br/>samples = 46<br/>value = [45, 1]>, fillcolor="#e6843d"] ;
81 -> 91 ;
92 [label=<gini = 0.0<br/>samples = 1<br/>value = [0, 1]>, fillcolor="#399de5"] ;
91 -> 92 ;
93 [label=<gini = 0.0<br/>samples = 45<br/>value = [45, 0]>, fillcolor="#e58139"] ;
91 -> 93 ;
94 [label=<X<SUB>28</SUB> &le; 0.753<br/>gini = 0.031<br/>samples = 193<br/>value = [190, 3]>, fillcolor="#e5833c"] ;
80 -> 94 ;
95 [label=<gini = 0.0<br/>samples = 1<br/>value = [0, 1]>, fillcolor="#399de5"] ;
94 -> 95 ;
96 [label=<X<SUB>19</SUB> &le; 1.768<br/>gini = 0.021<br/>samples = 192<br/>value = [190, 2]>, fillcolor="#e5823b"] ;
94 -> 96 ;
97 [label=<X<SUB>6</SUB> &le; 0.491<br/>gini = 0.011<br/>samples = 188<br/>value = [187, 1]>, fillcolor="#e5823a"] ;
96 -> 97 ;
98 [label=<X<SUB>6</SUB> &le; 0.432<br/>gini = 0.1<br/>samples = 19<br/>value = [18, 1]>, fillcolor="#e68844"] ;
97 -> 98 ;
99 [label=<gini = 0.0<br/>samples = 18<br/>value = [18, 0]>, fillcolor="#e58139"] ;
98 -> 99 ;
100 [label=<gini = 0.0<br/>samples = 1<br/>value = [0, 1]>, fillcolor="#399de5"] ;
98 -> 100 ;
101 [label=<gini = 0.0<br/>samples = 169<br/>value = [169, 0]>, fillcolor="#e58139"] ;
97 -> 101 ;
102 [label=<X<SUB>14</SUB> &le; 1.01<br/>gini = 0.375<br/>samples = 4<br/>value = [3, 1]>, fillcolor="#eeab7b"] ;
96 -> 102 ;
103 [label=<gini = 0.0<br/>samples = 3<br/>value = [3, 0]>, fillcolor="#e58139"] ;
102 -> 103 ;
104 [label=<gini = 0.0<br/>samples = 1<br/>value = [0, 1]>, fillcolor="#399de5"] ;
102 -> 104 ;
105 [label=<X<SUB>3</SUB> &le; 1.974<br/>gini = 0.038<br/>samples = 467<br/>value = [458, 9]>, fillcolor="#e6833d"] ;
79 -> 105 ;
106 [label=<gini = 0.0<br/>samples = 1<br/>value = [0, 1]>, fillcolor="#399de5"] ;
105 -> 106 ;
107 [label=<X<SUB>0</SUB> &le; 0.459<br/>gini = 0.034<br/>samples = 466<br/>value = [458, 8]>, fillcolor="#e5833c"] ;
105 -> 107 ;
108 [label=<gini = 0.0<br/>samples = 306<br/>value = [306, 0]>, fillcolor="#e58139"] ;
107 -> 108 ;
109 [label=<X<SUB>27</SUB> &le; 0.105<br/>gini = 0.095<br/>samples = 160<br/>value = [152, 8]>, fillcolor="#e68843"] ;
107 -> 109 ;
110 [label=<X<SUB>21</SUB> &le; 0.715<br/>gini = 0.074<br/>samples = 157<br/>value = [151, 6]>, fillcolor="#e68641"] ;
109 -> 110 ;
111 [label=<X<SUB>16</SUB> &le; 0.843<br/>gini = 0.062<br/>samples = 156<br/>value = [151, 5]>, fillcolor="#e68540"] ;
110 -> 111 ;
112 [label=<X<SUB>23</SUB> &le; -0.438<br/>gini = 0.5<br/>samples = 4<br/>value = [2, 2]>, fillcolor="#ffffff"] ;
111 -> 112 ;
113 [label=<gini = 0.0<br/>samples = 2<br/>value = [2, 0]>, fillcolor="#e58139"] ;
112 -> 113 ;
114 [label=<gini = 0.0<br/>samples = 2<br/>value = [0, 2]>, fillcolor="#399de5"] ;
112 -> 114 ;
115 [label=<X<SUB>10</SUB> &le; 1.654<br/>gini = 0.039<br/>samples = 152<br/>value = [149, 3]>, fillcolor="#e6843d"] ;
111 -> 115 ;
116 [label=<X<SUB>13</SUB> &le; -4.222<br/>gini = 0.014<br/>samples = 144<br/>value = [143, 1]>, fillcolor="#e5823a"] ;
115 -> 116 ;
117 [label=<X<SUB>1</SUB> &le; 1.252<br/>gini = 0.375<br/>samples = 4<br/>value = [3, 1]>, fillcolor="#eeab7b"] ;
116 -> 117 ;
118 [label=<gini = 0.0<br/>samples = 1<br/>value = [0, 1]>, fillcolor="#399de5"] ;
117 -> 118 ;
119 [label=<gini = 0.0<br/>samples = 3<br/>value = [3, 0]>, fillcolor="#e58139"] ;
117 -> 119 ;
120 [label=<gini = 0.0<br/>samples = 140<br/>value = [140, 0]>, fillcolor="#e58139"] ;
116 -> 120 ;
121 [label=<X<SUB>16</SUB> &le; 1.858<br/>gini = 0.375<br/>samples = 8<br/>value = [6, 2]>, fillcolor="#eeab7b"] ;
115 -> 121 ;
122 [label=<gini = 0.0<br/>samples = 2<br/>value = [0, 2]>, fillcolor="#399de5"] ;
121 -> 122 ;
123 [label=<gini = 0.0<br/>samples = 6<br/>value = [6, 0]>, fillcolor="#e58139"] ;
121 -> 123 ;
124 [label=<gini = 0.0<br/>samples = 1<br/>value = [0, 1]>, fillcolor="#399de5"] ;
110 -> 124 ;
125 [label=<X<SUB>11</SUB> &le; -0.006<br/>gini = 0.444<br/>samples = 3<br/>value = [1, 2]>, fillcolor="#9ccef2"] ;
109 -> 125 ;
126 [label=<gini = 0.0<br/>samples = 2<br/>value = [0, 2]>, fillcolor="#399de5"] ;
125 -> 126 ;
127 [label=<gini = 0.0<br/>samples = 1<br/>value = [1, 0]>, fillcolor="#e58139"] ;
125 -> 127 ;
128 [label=<X<SUB>20</SUB> &le; 10.934<br/>gini = 0.444<br/>samples = 3<br/>value = [2, 1]>, fillcolor="#f2c09c"] ;
78 -> 128 ;
129 [label=<gini = 0.0<br/>samples = 1<br/>value = [0, 1]>, fillcolor="#399de5"] ;
128 -> 129 ;
130 [label=<gini = 0.0<br/>samples = 2<br/>value = [2, 0]>, fillcolor="#e58139"] ;
128 -> 130 ;
131 [label=<gini = 0.0<br/>samples = 1<br/>value = [0, 1]>, fillcolor="#399de5"] ;
77 -> 131 ;
132 [label=<X<SUB>16</SUB> &le; -2.037<br/>gini = 0.0<br/>samples = 193231<br/>value = [193195, 36]>, fillcolor="#e58139"] ;
76 -> 132 ;
133 [label=<X<SUB>15</SUB> &le; 1.321<br/>gini = 0.165<br/>samples = 11<br/>value = [10, 1]>, fillcolor="#e88e4d"] ;
132 -> 133 ;
134 [label=<gini = 0.0<br/>samples = 1<br/>value = [0, 1]>, fillcolor="#399de5"] ;
133 -> 134 ;
135 [label=<gini = 0.0<br/>samples = 10<br/>value = [10, 0]>, fillcolor="#e58139"] ;
133 -> 135 ;
136 [label=<X<SUB>25</SUB> &le; 2.741<br/>gini = 0.0<br/>samples = 193220<br/>value = [193185, 35]>, fillcolor="#e58139"] ;
132 -> 136 ;
137 [label=<X<SUB>16</SUB> &le; 2.031<br/>gini = 0.0<br/>samples = 193189<br/>value = [193155, 34]>, fillcolor="#e58139"] ;
136 -> 137 ;
138 [label=<X<SUB>3</SUB> &le; 1.715<br/>gini = 0.0<br/>samples = 192029<br/>value = [192000, 29]>, fillcolor="#e58139"] ;
137 -> 138 ;
139 [label=<X<SUB>21</SUB> &le; 2.151<br/>gini = 0.0<br/>samples = 177553<br/>value = [177537, 16]>, fillcolor="#e58139"] ;
138 -> 139 ;
140 [label=<X<SUB>13</SUB> &le; -0.432<br/>gini = 0.0<br/>samples = 177387<br/>value = [177372, 15]>, fillcolor="#e58139"] ;
139 -> 140 ;
141 [label=<X<SUB>13</SUB> &le; -0.432<br/>gini = 0.001<br/>samples = 39918<br/>value = [39907, 11]>, fillcolor="#e58139"] ;
140 -> 141 ;
142 [label=<X<SUB>10</SUB> &le; 2.28<br/>gini = 0.001<br/>samples = 39917<br/>value = [39907, 10]>, fillcolor="#e58139"] ;
141 -> 142 ;
143 [label=<X<SUB>25</SUB> &le; 1.246<br/>gini = 0.0<br/>samples = 39838<br/>value = [39829, 9]>, fillcolor="#e58139"] ;
142 -> 143 ;
144 [label=<X<SUB>12</SUB> &le; -0.948<br/>gini = 0.0<br/>samples = 39643<br/>value = [39635, 8]>, fillcolor="#e58139"] ;
143 -> 144 ;
145 [label=<X<SUB>12</SUB> &le; -0.948<br/>gini = 0.002<br/>samples = 4649<br/>value = [4644, 5]>, fillcolor="#e58139"] ;
144 -> 145 ;
146 [label=<X<SUB>20</SUB> &le; 0.857<br/>gini = 0.002<br/>samples = 4648<br/>value = [4644, 4]>, fillcolor="#e58139"] ;
145 -> 146 ;
147 [label=<X<SUB>18</SUB> &le; -0.896<br/>gini = 0.001<br/>samples = 4571<br/>value = [4568, 3]>, fillcolor="#e58139"] ;
146 -> 147 ;
148 [label=<X<SUB>18</SUB> &le; -0.897<br/>gini = 0.011<br/>samples = 346<br/>value = [344, 2]>, fillcolor="#e5823a"] ;
147 -> 148 ;
149 [label=<X<SUB>12</SUB> &le; -0.986<br/>gini = 0.006<br/>samples = 345<br/>value = [344, 1]>, fillcolor="#e5813a"] ;
148 -> 149 ;
150 [label=<gini = 0.0<br/>samples = 321<br/>value = [321, 0]>, fillcolor="#e58139"] ;
149 -> 150 ;
151 [label=<X<SUB>12</SUB> &le; -0.984<br/>gini = 0.08<br/>samples = 24<br/>value = [23, 1]>, fillcolor="#e68642"] ;
149 -> 151 ;
152 [label=<gini = 0.0<br/>samples = 1<br/>value = [0, 1]>, fillcolor="#399de5"] ;
151 -> 152 ;
153 [label=<gini = 0.0<br/>samples = 23<br/>value = [23, 0]>, fillcolor="#e58139"] ;
151 -> 153 ;
154 [label=<gini = 0.0<br/>samples = 1<br/>value = [0, 1]>, fillcolor="#399de5"] ;
148 -> 154 ;
155 [label=<X<SUB>3</SUB> &le; 1.494<br/>gini = 0.0<br/>samples = 4225<br/>value = [4224, 1]>, fillcolor="#e58139"] ;
147 -> 155 ;
156 [label=<gini = 0.0<br/>samples = 4068<br/>value = [4068, 0]>, fillcolor="#e58139"] ;
155 -> 156 ;
157 [label=<X<SUB>3</SUB> &le; 1.494<br/>gini = 0.013<br/>samples = 157<br/>value = [156, 1]>, fillcolor="#e5823a"] ;
155 -> 157 ;
158 [label=<gini = 0.0<br/>samples = 1<br/>value = [0, 1]>, fillcolor="#399de5"] ;
157 -> 158 ;
159 [label=<gini = 0.0<br/>samples = 156<br/>value = [156, 0]>, fillcolor="#e58139"] ;
157 -> 159 ;
160 [label=<X<SUB>20</SUB> &le; 0.871<br/>gini = 0.026<br/>samples = 77<br/>value = [76, 1]>, fillcolor="#e5833c"] ;
146 -> 160 ;
161 [label=<gini = 0.0<br/>samples = 1<br/>value = [0, 1]>, fillcolor="#399de5"] ;
160 -> 161 ;
162 [label=<gini = 0.0<br/>samples = 76<br/>value = [76, 0]>, fillcolor="#e58139"] ;
160 -> 162 ;
163 [label=<gini = 0.0<br/>samples = 1<br/>value = [0, 1]>, fillcolor="#399de5"] ;
145 -> 163 ;
164 [label=<X<SUB>26</SUB> &le; 1.213<br/>gini = 0.0<br/>samples = 34994<br/>value = [34991, 3]>, fillcolor="#e58139"] ;
144 -> 164 ;
165 [label=<X<SUB>9</SUB> &le; -1.481<br/>gini = 0.0<br/>samples = 34748<br/>value = [34746, 2]>, fillcolor="#e58139"] ;
164 -> 165 ;
166 [label=<X<SUB>9</SUB> &le; -1.481<br/>gini = 0.002<br/>samples = 1060<br/>value = [1059, 1]>, fillcolor="#e58139"] ;
165 -> 166 ;
167 [label=<gini = 0.0<br/>samples = 1059<br/>value = [1059, 0]>, fillcolor="#e58139"] ;
166 -> 167 ;
168 [label=<gini = 0.0<br/>samples = 1<br/>value = [0, 1]>, fillcolor="#399de5"] ;
166 -> 168 ;
169 [label=<X<SUB>10</SUB> &le; 1.2<br/>gini = 0.0<br/>samples = 33688<br/>value = [33687, 1]>, fillcolor="#e58139"] ;
165 -> 169 ;
170 [label=<gini = 0.0<br/>samples = 31032<br/>value = [31032, 0]>, fillcolor="#e58139"] ;
169 -> 170 ;
171 [label=<X<SUB>10</SUB> &le; 1.2<br/>gini = 0.001<br/>samples = 2656<br/>value = [2655, 1]>, fillcolor="#e58139"] ;
169 -> 171 ;
172 [label=<gini = 0.0<br/>samples = 1<br/>value = [0, 1]>, fillcolor="#399de5"] ;
171 -> 172 ;
173 [label=<gini = 0.0<br/>samples = 2655<br/>value = [2655, 0]>, fillcolor="#e58139"] ;
171 -> 173 ;
174 [label=<X<SUB>26</SUB> &le; 1.215<br/>gini = 0.008<br/>samples = 246<br/>value = [245, 1]>, fillcolor="#e5823a"] ;
164 -> 174 ;
175 [label=<gini = 0.0<br/>samples = 1<br/>value = [0, 1]>, fillcolor="#399de5"] ;
174 -> 175 ;
176 [label=<gini = 0.0<br/>samples = 245<br/>value = [245, 0]>, fillcolor="#e58139"] ;
174 -> 176 ;
177 [label=<X<SUB>25</SUB> &le; 1.247<br/>gini = 0.01<br/>samples = 195<br/>value = [194, 1]>, fillcolor="#e5823a"] ;
143 -> 177 ;
178 [label=<gini = 0.0<br/>samples = 1<br/>value = [0, 1]>, fillcolor="#399de5"] ;
177 -> 178 ;
179 [label=<gini = 0.0<br/>samples = 194<br/>value = [194, 0]>, fillcolor="#e58139"] ;
177 -> 179 ;
180 [label=<X<SUB>10</SUB> &le; 2.283<br/>gini = 0.025<br/>samples = 79<br/>value = [78, 1]>, fillcolor="#e5833c"] ;
142 -> 180 ;
181 [label=<gini = 0.0<br/>samples = 1<br/>value = [0, 1]>, fillcolor="#399de5"] ;
180 -> 181 ;
182 [label=<gini = 0.0<br/>samples = 78<br/>value = [78, 0]>, fillcolor="#e58139"] ;
180 -> 182 ;
183 [label=<gini = 0.0<br/>samples = 1<br/>value = [0, 1]>, fillcolor="#399de5"] ;
141 -> 183 ;
184 [label=<X<SUB>19</SUB> &le; 0.861<br/>gini = 0.0<br/>samples = 137469<br/>value = [137465, 4]>, fillcolor="#e58139"] ;
140 -> 184 ;
185 [label=<gini = 0.0<br/>samples = 132117<br/>value = [132117, 0]>, fillcolor="#e58139"] ;
184 -> 185 ;
186 [label=<X<SUB>19</SUB> &le; 0.861<br/>gini = 0.001<br/>samples = 5352<br/>value = [5348, 4]>, fillcolor="#e58139"] ;
184 -> 186 ;
187 [label=<gini = 0.0<br/>samples = 1<br/>value = [0, 1]>, fillcolor="#399de5"] ;
186 -> 187 ;
188 [label=<X<SUB>19</SUB> &le; 0.865<br/>gini = 0.001<br/>samples = 5351<br/>value = [5348, 3]>, fillcolor="#e58139"] ;
186 -> 188 ;
189 [label=<X<SUB>16</SUB> &le; 1.232<br/>gini = 0.067<br/>samples = 29<br/>value = [28, 1]>, fillcolor="#e68640"] ;
188 -> 189 ;
190 [label=<gini = 0.0<br/>samples = 28<br/>value = [28, 0]>, fillcolor="#e58139"] ;
189 -> 190 ;
191 [label=<gini = 0.0<br/>samples = 1<br/>value = [0, 1]>, fillcolor="#399de5"] ;
189 -> 191 ;
192 [label=<X<SUB>25</SUB> &le; -1.123<br/>gini = 0.001<br/>samples = 5322<br/>value = [5320, 2]>, fillcolor="#e58139"] ;
188 -> 192 ;
193 [label=<X<SUB>25</SUB> &le; -1.126<br/>gini = 0.044<br/>samples = 44<br/>value = [43, 1]>, fillcolor="#e6843e"] ;
192 -> 193 ;
194 [label=<gini = 0.0<br/>samples = 43<br/>value = [43, 0]>, fillcolor="#e58139"] ;
193 -> 194 ;
195 [label=<gini = 0.0<br/>samples = 1<br/>value = [0, 1]>, fillcolor="#399de5"] ;
193 -> 195 ;
196 [label=<X<SUB>12</SUB> &le; -2.135<br/>gini = 0.0<br/>samples = 5278<br/>value = [5277, 1]>, fillcolor="#e58139"] ;
192 -> 196 ;
197 [label=<X<SUB>12</SUB> &le; -2.141<br/>gini = 0.028<br/>samples = 71<br/>value = [70, 1]>, fillcolor="#e5833c"] ;
196 -> 197 ;
198 [label=<gini = 0.0<br/>samples = 70<br/>value = [70, 0]>, fillcolor="#e58139"] ;
197 -> 198 ;
199 [label=<gini = 0.0<br/>samples = 1<br/>value = [0, 1]>, fillcolor="#399de5"] ;
197 -> 199 ;
200 [label=<gini = 0.0<br/>samples = 5207<br/>value = [5207, 0]>, fillcolor="#e58139"] ;
196 -> 200 ;
201 [label=<X<SUB>20</SUB> &le; 1.315<br/>gini = 0.012<br/>samples = 166<br/>value = [165, 1]>, fillcolor="#e5823a"] ;
139 -> 201 ;
202 [label=<gini = 0.0<br/>samples = 165<br/>value = [165, 0]>, fillcolor="#e58139"] ;
201 -> 202 ;
203 [label=<gini = 0.0<br/>samples = 1<br/>value = [0, 1]>, fillcolor="#399de5"] ;
201 -> 203 ;
204 [label=<X<SUB>3</SUB> &le; 1.715<br/>gini = 0.002<br/>samples = 14476<br/>value = [14463, 13]>, fillcolor="#e58139"] ;
138 -> 204 ;
205 [label=<gini = 0.0<br/>samples = 1<br/>value = [0, 1]>, fillcolor="#399de5"] ;
204 -> 205 ;
206 [label=<X<SUB>16</SUB> &le; 1.593<br/>gini = 0.002<br/>samples = 14475<br/>value = [14463, 12]>, fillcolor="#e58139"] ;
204 -> 206 ;
207 [label=<X<SUB>26</SUB> &le; -2.508<br/>gini = 0.001<br/>samples = 14242<br/>value = [14233, 9]>, fillcolor="#e58139"] ;
206 -> 207 ;
208 [label=<X<SUB>26</SUB> &le; -2.534<br/>gini = 0.038<br/>samples = 52<br/>value = [51, 1]>, fillcolor="#e6833d"] ;
207 -> 208 ;
209 [label=<gini = 0.0<br/>samples = 51<br/>value = [51, 0]>, fillcolor="#e58139"] ;
208 -> 209 ;
210 [label=<gini = 0.0<br/>samples = 1<br/>value = [0, 1]>, fillcolor="#399de5"] ;
208 -> 210 ;
211 [label=<X<SUB>20</SUB> &le; -1.033<br/>gini = 0.001<br/>samples = 14190<br/>value = [14182, 8]>, fillcolor="#e58139"] ;
207 -> 211 ;
212 [label=<X<SUB>20</SUB> &le; -1.033<br/>gini = 0.009<br/>samples = 441<br/>value = [439, 2]>, fillcolor="#e5823a"] ;
211 -> 212 ;
213 [label=<X<SUB>0</SUB> &le; 0.196<br/>gini = 0.005<br/>samples = 440<br/>value = [439, 1]>, fillcolor="#e58139"] ;
212 -> 213 ;
214 [label=<gini = 0.0<br/>samples = 423<br/>value = [423, 0]>, fillcolor="#e58139"] ;
213 -> 214 ;
215 [label=<X<SUB>0</SUB> &le; 0.21<br/>gini = 0.111<br/>samples = 17<br/>value = [16, 1]>, fillcolor="#e78945"] ;
213 -> 215 ;
216 [label=<gini = 0.0<br/>samples = 1<br/>value = [0, 1]>, fillcolor="#399de5"] ;
215 -> 216 ;
217 [label=<gini = 0.0<br/>samples = 16<br/>value = [16, 0]>, fillcolor="#e58139"] ;
215 -> 217 ;
218 [label=<gini = 0.0<br/>samples = 1<br/>value = [0, 1]>, fillcolor="#399de5"] ;
212 -> 218 ;
219 [label=<X<SUB>3</SUB> &le; 1.732<br/>gini = 0.001<br/>samples = 13749<br/>value = [13743, 6]>, fillcolor="#e58139"] ;
211 -> 219 ;
220 [label=<X<SUB>3</SUB> &le; 1.731<br/>gini = 0.012<br/>samples = 163<br/>value = [162, 1]>, fillcolor="#e5823a"] ;
219 -> 220 ;
221 [label=<gini = 0.0<br/>samples = 162<br/>value = [162, 0]>, fillcolor="#e58139"] ;
220 -> 221 ;
222 [label=<gini = 0.0<br/>samples = 1<br/>value = [0, 1]>, fillcolor="#399de5"] ;
220 -> 222 ;
223 [label=<X<SUB>14</SUB> &le; -2.72<br/>gini = 0.001<br/>samples = 13586<br/>value = [13581, 5]>, fillcolor="#e58139"] ;
219 -> 223 ;
224 [label=<X<SUB>14</SUB> &le; -2.72<br/>gini = 0.008<br/>samples = 247<br/>value = [246, 1]>, fillcolor="#e5823a"] ;
223 -> 224 ;
225 [label=<gini = 0.0<br/>samples = 246<br/>value = [246, 0]>, fillcolor="#e58139"] ;
224 -> 225 ;
226 [label=<gini = 0.0<br/>samples = 1<br/>value = [0, 1]>, fillcolor="#399de5"] ;
224 -> 226 ;
227 [label=<X<SUB>19</SUB> &le; -1.376<br/>gini = 0.001<br/>samples = 13339<br/>value = [13335, 4]>, fillcolor="#e58139"] ;
223 -> 227 ;
228 [label=<X<SUB>19</SUB> &le; -1.378<br/>gini = 0.008<br/>samples = 258<br/>value = [257, 1]>, fillcolor="#e5813a"] ;
227 -> 228 ;
229 [label=<gini = 0.0<br/>samples = 257<br/>value = [257, 0]>, fillcolor="#e58139"] ;
228 -> 229 ;
230 [label=<gini = 0.0<br/>samples = 1<br/>value = [0, 1]>, fillcolor="#399de5"] ;
228 -> 230 ;
231 [label=<X<SUB>6</SUB> &le; 1.295<br/>gini = 0.0<br/>samples = 13081<br/>value = [13078, 3]>, fillcolor="#e58139"] ;
227 -> 231 ;
232 [label=<X<SUB>11</SUB> &le; 1.237<br/>gini = 0.0<br/>samples = 12042<br/>value = [12041, 1]>, fillcolor="#e58139"] ;
231 -> 232 ;
233 [label=<gini = 0.0<br/>samples = 11695<br/>value = [11695, 0]>, fillcolor="#e58139"] ;
232 -> 233 ;
234 [label=<X<SUB>11</SUB> &le; 1.238<br/>gini = 0.006<br/>samples = 347<br/>value = [346, 1]>, fillcolor="#e5813a"] ;
232 -> 234 ;
235 [label=<gini = 0.0<br/>samples = 1<br/>value = [0, 1]>, fillcolor="#399de5"] ;
234 -> 235 ;
236 [label=<gini = 0.0<br/>samples = 346<br/>value = [346, 0]>, fillcolor="#e58139"] ;
234 -> 236 ;
237 [label=<X<SUB>6</SUB> &le; 1.295<br/>gini = 0.004<br/>samples = 1039<br/>value = [1037, 2]>, fillcolor="#e58139"] ;
231 -> 237 ;
238 [label=<gini = 0.0<br/>samples = 1<br/>value = [0, 1]>, fillcolor="#399de5"] ;
237 -> 238 ;
239 [label=<X<SUB>0</SUB> &le; 0.201<br/>gini = 0.002<br/>samples = 1038<br/>value = [1037, 1]>, fillcolor="#e58139"] ;
237 -> 239 ;
240 [label=<gini = 0.0<br/>samples = 997<br/>value = [997, 0]>, fillcolor="#e58139"] ;
239 -> 240 ;
241 [label=<X<SUB>0</SUB> &le; 0.207<br/>gini = 0.048<br/>samples = 41<br/>value = [40, 1]>, fillcolor="#e6843e"] ;
239 -> 241 ;
242 [label=<gini = 0.0<br/>samples = 1<br/>value = [0, 1]>, fillcolor="#399de5"] ;
241 -> 242 ;
243 [label=<gini = 0.0<br/>samples = 40<br/>value = [40, 0]>, fillcolor="#e58139"] ;
241 -> 243 ;
244 [label=<X<SUB>16</SUB> &le; 1.594<br/>gini = 0.025<br/>samples = 233<br/>value = [230, 3]>, fillcolor="#e5833c"] ;
206 -> 244 ;
245 [label=<gini = 0.0<br/>samples = 1<br/>value = [0, 1]>, fillcolor="#399de5"] ;
244 -> 245 ;
246 [label=<X<SUB>17</SUB> &le; 1.311<br/>gini = 0.017<br/>samples = 232<br/>value = [230, 2]>, fillcolor="#e5823b"] ;
244 -> 246 ;
247 [label=<X<SUB>0</SUB> &le; 1.167<br/>gini = 0.009<br/>samples = 224<br/>value = [223, 1]>, fillcolor="#e5823a"] ;
246 -> 247 ;
248 [label=<gini = 0.0<br/>samples = 217<br/>value = [217, 0]>, fillcolor="#e58139"] ;
247 -> 248 ;
249 [label=<X<SUB>0</SUB> &le; 1.197<br/>gini = 0.245<br/>samples = 7<br/>value = [6, 1]>, fillcolor="#e9965a"] ;
247 -> 249 ;
250 [label=<gini = 0.0<br/>samples = 1<br/>value = [0, 1]>, fillcolor="#399de5"] ;
249 -> 250 ;
251 [label=<gini = 0.0<br/>samples = 6<br/>value = [6, 0]>, fillcolor="#e58139"] ;
249 -> 251 ;
252 [label=<X<SUB>17</SUB> &le; 1.318<br/>gini = 0.219<br/>samples = 8<br/>value = [7, 1]>, fillcolor="#e99355"] ;
246 -> 252 ;
253 [label=<gini = 0.0<br/>samples = 1<br/>value = [0, 1]>, fillcolor="#399de5"] ;
252 -> 253 ;
254 [label=<gini = 0.0<br/>samples = 7<br/>value = [7, 0]>, fillcolor="#e58139"] ;
252 -> 254 ;
255 [label=<X<SUB>16</SUB> &le; 2.033<br/>gini = 0.009<br/>samples = 1160<br/>value = [1155, 5]>, fillcolor="#e5823a"] ;
137 -> 255 ;
256 [label=<gini = 0.0<br/>samples = 1<br/>value = [0, 1]>, fillcolor="#399de5"] ;
255 -> 256 ;
257 [label=<X<SUB>3</SUB> &le; 2.629<br/>gini = 0.007<br/>samples = 1159<br/>value = [1155, 4]>, fillcolor="#e5813a"] ;
255 -> 257 ;
258 [label=<gini = 0.0<br/>samples = 1055<br/>value = [1055, 0]>, fillcolor="#e58139"] ;
257 -> 258 ;
259 [label=<X<SUB>3</SUB> &le; 2.641<br/>gini = 0.074<br/>samples = 104<br/>value = [100, 4]>, fillcolor="#e68641"] ;
257 -> 259 ;
260 [label=<gini = 0.0<br/>samples = 1<br/>value = [0, 1]>, fillcolor="#399de5"] ;
259 -> 260 ;
261 [label=<X<SUB>0</SUB> &le; 0.743<br/>gini = 0.057<br/>samples = 103<br/>value = [100, 3]>, fillcolor="#e6853f"] ;
259 -> 261 ;
262 [label=<gini = 0.0<br/>samples = 86<br/>value = [86, 0]>, fillcolor="#e58139"] ;
261 -> 262 ;
263 [label=<X<SUB>27</SUB> &le; 0.072<br/>gini = 0.291<br/>samples = 17<br/>value = [14, 3]>, fillcolor="#eb9c63"] ;
261 -> 263 ;
264 [label=<X<SUB>4</SUB> &le; 0.225<br/>gini = 0.124<br/>samples = 15<br/>value = [14, 1]>, fillcolor="#e78a47"] ;
263 -> 264 ;
265 [label=<gini = 0.0<br/>samples = 1<br/>value = [0, 1]>, fillcolor="#399de5"] ;
264 -> 265 ;
266 [label=<gini = 0.0<br/>samples = 14<br/>value = [14, 0]>, fillcolor="#e58139"] ;
264 -> 266 ;
267 [label=<gini = 0.0<br/>samples = 2<br/>value = [0, 2]>, fillcolor="#399de5"] ;
263 -> 267 ;
268 [label=<X<SUB>9</SUB> &le; 1.707<br/>gini = 0.062<br/>samples = 31<br/>value = [30, 1]>, fillcolor="#e68540"] ;
136 -> 268 ;
269 [label=<gini = 0.0<br/>samples = 30<br/>value = [30, 0]>, fillcolor="#e58139"] ;
268 -> 269 ;
270 [label=<gini = 0.0<br/>samples = 1<br/>value = [0, 1]>, fillcolor="#399de5"] ;
268 -> 270 ;
}